<?xml version="1.0"?>
<opencv_storage>
<cascade>
  <stageType>BOOST</stageType>
  <featureType>HAAR</featureType>
  <height>80</height>
  <width>80</width>
  <stageParams>
    <boostType>GAB</boostType>
    <minHitRate>9.9900001287460327e-01</minHitRate>
    <maxFalseAlarm>5.0000000000000000e-01</maxFalseAlarm>
    <weightTrimRate>9.4999999999999996e-01</weightTrimRate>
    <maxDepth>1</maxDepth>
    <maxWeakCount>100</maxWeakCount></stageParams>
  <featureParams>
    <maxCatCount>0</maxCatCount>
    <featSize>1</featSize>
    <mode>ALL</mode></featureParams>
  <stageNum>5</stageNum>
  <stages>
    <!-- stage 0 -->
    <_>
      <maxWeakCount>2</maxWeakCount>
      <stageThreshold>-2.0631137490272522e-01</stageThreshold>
      <weakClassifiers>
        <_>
          <internalNodes>
            0 -1 11 8.8803209364414215e-03</internalNodes>
          <leafValues>
            -9.2000001668930054e-01 6.8000000715255737e-01</leafValues></_>
        <_>
          <internalNodes>
            0 -1 5 6.9413217715919018e-04</internalNodes>
          <leafValues>
            -8.7872284650802612e-01 7.1368861198425293e-01</leafValues></_></weakClassifiers></_>
    <!-- stage 1 -->
    <_>
      <maxWeakCount>3</maxWeakCount>
      <stageThreshold>-1.1154180765151978e+00</stageThreshold>
      <weakClassifiers>
        <_>
          <internalNodes>
            0 -1 1 6.3602194190025330e-02</internalNodes>
          <leafValues>
            -8.4761905670166016e-01 6.9999998807907104e-01</leafValues></_>
        <_>
          <internalNodes>
            0 -1 9 1.8801041878759861e-03</internalNodes>
          <leafValues>
            -9.2834353446960449e-01 4.5974576473236084e-01</leafValues></_>
        <_>
          <internalNodes>
            0 -1 7 1.3516351580619812e-02</internalNodes>
          <leafValues>
            -8.0837732553482056e-01 6.6054445505142212e-01</leafValues></_></weakClassifiers></_>
    <!-- stage 2 -->
    <_>
      <maxWeakCount>3</maxWeakCount>
      <stageThreshold>-1.0655932426452637e+00</stageThreshold>
      <weakClassifiers>
        <_>
          <internalNodes>
            0 -1 13 4.8840917646884918e-02</internalNodes>
          <leafValues>
            -8.2159626483917236e-01 6.7567569017410278e-01</leafValues></_>
        <_>
          <internalNodes>
            0 -1 6 -1.5815622173249722e-03</internalNodes>
          <leafValues>
            6.1026835441589355e-01 -8.2539957761764526e-01</leafValues></_>
        <_>
          <internalNodes>
            0 -1 3 -6.1459308490157127e-03</internalNodes>
          <leafValues>
            5.9349274635314941e-01 -8.5426533222198486e-01</leafValues></_></weakClassifiers></_>
    <!-- stage 3 -->
    <_>
      <maxWeakCount>3</maxWeakCount>
      <stageThreshold>-1.3017802238464355e+00</stageThreshold>
      <weakClassifiers>
        <_>
          <internalNodes>
            0 -1 8 2.8057938907295465e-03</internalNodes>
          <leafValues>
            -8.7500000000000000e-01 3.1034481525421143e-01</leafValues></_>
        <_>
          <internalNodes>
            0 -1 12 1.5610970556735992e-02</internalNodes>
          <leafValues>
            -7.2449845075607300e-01 5.4060137271881104e-01</leafValues></_>
        <_>
          <internalNodes>
            0 -1 4 3.0250074341893196e-03</internalNodes>
          <leafValues>
            -8.8762658834457397e-01 4.7728803753852844e-01</leafValues></_></weakClassifiers></_>
    <!-- stage 4 -->
    <_>
      <maxWeakCount>3</maxWeakCount>
      <stageThreshold>-1.1182018518447876e+00</stageThreshold>
      <weakClassifiers>
        <_>
          <internalNodes>
            0 -1 0 8.1446126103401184e-02</internalNodes>
          <leafValues>
            -8.1553399562835693e-01 4.0909090638160706e-01</leafValues></_>
        <_>
          <internalNodes>
            0 -1 2 1.4436138793826103e-02</internalNodes>
          <leafValues>
            -7.4048852920532227e-01 5.0447022914886475e-01</leafValues></_>
        <_>
          <internalNodes>
            0 -1 10 -5.1333854207769036e-04</internalNodes>
          <leafValues>
            4.3782067298889160e-01 -9.8279154300689697e-01</leafValues></_></weakClassifiers></_></stages>
  <features>
    <_>
      <rects>
        <_>
          5 0 19 80 -1.</_>
        <_>
          5 20 19 40 2.</_></rects>
      <tilted>0</tilted></_>
    <_>
      <rects>
        <_>
          27 0 29 33 -1.</_>
        <_>
          27 11 29 11 3.</_></rects>
      <tilted>0</tilted></_>
    <_>
      <rects>
        <_>
          27 9 15 20 -1.</_>
        <_>
          32 14 5 20 3.</_></rects>
      <tilted>1</tilted></_>
    <_>
      <rects>
        <_>
          29 24 20 11 -1.</_>
        <_>
          34 29 10 11 2.</_></rects>
      <tilted>1</tilted></_>
    <_>
      <rects>
        <_>
          32 36 12 12 -1.</_>
        <_>
          32 42 12 6 2.</_></rects>
      <tilted>0</tilted></_>
    <_>
      <rects>
        <_>
          32 38 9 3 -1.</_>
        <_>
          35 38 3 3 3.</_></rects>
      <tilted>0</tilted></_>
    <_>
      <rects>
        <_>
          35 35 12 9 -1.</_>
        <_>
          35 38 12 3 3.</_></rects>
      <tilted>0</tilted></_>
    <_>
      <rects>
        <_>
          35 49 19 30 -1.</_>
        <_>
          35 59 19 10 3.</_></rects>
      <tilted>0</tilted></_>
    <_>
      <rects>
        <_>
          37 27 1 36 -1.</_>
        <_>
          28 36 1 18 2.</_></rects>
      <tilted>1</tilted></_>
    <_>
      <rects>
        <_>
          38 33 1 36 -1.</_>
        <_>
          29 42 1 18 2.</_></rects>
      <tilted>1</tilted></_>
    <_>
      <rects>
        <_>
          43 33 8 15 -1.</_>
        <_>
          47 33 4 15 2.</_></rects>
      <tilted>0</tilted></_>
    <_>
      <rects>
        <_>
          48 33 18 10 -1.</_>
        <_>
          57 33 9 10 2.</_></rects>
      <tilted>0</tilted></_>
    <_>
      <rects>
        <_>
          54 34 24 26 -1.</_>
        <_>
          60 34 12 26 2.</_></rects>
      <tilted>0</tilted></_>
    <_>
      <rects>
        <_>
          55 2 23 21 -1.</_>
        <_>
          48 9 23 7 3.</_></rects>
      <tilted>1</tilted></_></features></cascade>
</opencv_storage>
