<?xml version="1.0"?>
<opencv_storage>
<cascade>
  <stageType>BOOST</stageType>
  <featureType>HAAR</featureType>
  <height>48</height>
  <width>48</width>
  <stageParams>
    <boostType>GAB</boostType>
    <minHitRate>9.9500000476837158e-01</minHitRate>
    <maxFalseAlarm>5.0000000000000000e-01</maxFalseAlarm>
    <weightTrimRate>9.4999999999999996e-01</weightTrimRate>
    <maxDepth>1</maxDepth>
    <maxWeakCount>100</maxWeakCount></stageParams>
  <featureParams>
    <maxCatCount>0</maxCatCount>
    <featSize>1</featSize>
    <mode>BASIC</mode></featureParams>
  <stageNum>9</stageNum>
  <stages>
    <!-- stage 0 -->
    <_>
      <maxWeakCount>1</maxWeakCount>
      <stageThreshold>1.</stageThreshold>
      <weakClassifiers>
        <_>
          <internalNodes>
            0 -1 1 -1.7818048596382141e-02</internalNodes>
          <leafValues>
            1. -1.</leafValues></_></weakClassifiers></_>
    <!-- stage 1 -->
    <_>
      <maxWeakCount>1</maxWeakCount>
      <stageThreshold>1.</stageThreshold>
      <weakClassifiers>
        <_>
          <internalNodes>
            0 -1 7 -9.7015738487243652e-02</internalNodes>
          <leafValues>
            1. -9.9004977941513062e-01</leafValues></_></weakClassifiers></_>
    <!-- stage 2 -->
    <_>
      <maxWeakCount>2</maxWeakCount>
      <stageThreshold>1.6572553664445877e-02</stageThreshold>
      <weakClassifiers>
        <_>
          <internalNodes>
            0 -1 0 -1.2646648287773132e-01</internalNodes>
          <leafValues>
            9.5411884784698486e-01 -8.0343216657638550e-01</leafValues></_>
        <_>
          <internalNodes>
            0 -1 15 -5.9791523963212967e-03</internalNodes>
          <leafValues>
            8.2947218418121338e-01 -9.3754631280899048e-01</leafValues></_></weakClassifiers></_>
    <!-- stage 3 -->
    <_>
      <maxWeakCount>2</maxWeakCount>
      <stageThreshold>-1.5394568443298340e-01</stageThreshold>
      <weakClassifiers>
        <_>
          <internalNodes>
            0 -1 10 -1.1695852130651474e-01</internalNodes>
          <leafValues>
            8.5361027717590332e-01 -7.8607809543609619e-01</leafValues></_>
        <_>
          <internalNodes>
            0 -1 13 2.6639697607606649e-03</internalNodes>
          <leafValues>
            -9.6212536096572876e-01 6.3213241100311279e-01</leafValues></_></weakClassifiers></_>
    <!-- stage 4 -->
    <_>
      <maxWeakCount>4</maxWeakCount>
      <stageThreshold>-2.5045269727706909e-01</stageThreshold>
      <weakClassifiers>
        <_>
          <internalNodes>
            0 -1 9 -8.6111441254615784e-02</internalNodes>
          <leafValues>
            9.3899780511856079e-01 -6.7741936445236206e-01</leafValues></_>
        <_>
          <internalNodes>
            0 -1 4 -3.6389674991369247e-02</internalNodes>
          <leafValues>
            8.7277567386627197e-01 -6.7736166715621948e-01</leafValues></_>
        <_>
          <internalNodes>
            0 -1 17 2.2053415887057781e-03</internalNodes>
          <leafValues>
            -9.3606710433959961e-01 5.7845705747604370e-01</leafValues></_>
        <_>
          <internalNodes>
            0 -1 16 -6.2343965510081034e-06</internalNodes>
          <leafValues>
            5.2587121725082397e-01 -7.4926298856735229e-01</leafValues></_></weakClassifiers></_>
    <!-- stage 5 -->
    <_>
      <maxWeakCount>2</maxWeakCount>
      <stageThreshold>-7.5344830751419067e-02</stageThreshold>
      <weakClassifiers>
        <_>
          <internalNodes>
            0 -1 8 3.3377524465322495e-02</internalNodes>
          <leafValues>
            -6.6055047512054443e-01 8.7949258089065552e-01</leafValues></_>
        <_>
          <internalNodes>
            0 -1 6 -3.1284932047128677e-03</internalNodes>
          <leafValues>
            5.8520561456680298e-01 -9.9376255273818970e-01</leafValues></_></weakClassifiers></_>
    <!-- stage 6 -->
    <_>
      <maxWeakCount>2</maxWeakCount>
      <stageThreshold>-5.3681596182286739e-03</stageThreshold>
      <weakClassifiers>
        <_>
          <internalNodes>
            0 -1 12 -6.1080500483512878e-02</internalNodes>
          <leafValues>
            9.0170937776565552e-01 -6.6867470741271973e-01</leafValues></_>
        <_>
          <internalNodes>
            0 -1 5 1.0896178428083658e-03</internalNodes>
          <leafValues>
            -9.0707755088806152e-01 6.9228225946426392e-01</leafValues></_></weakClassifiers></_>
    <!-- stage 7 -->
    <_>
      <maxWeakCount>2</maxWeakCount>
      <stageThreshold>-3.9267089217901230e-02</stageThreshold>
      <weakClassifiers>
        <_>
          <internalNodes>
            0 -1 11 -8.5633590817451477e-02</internalNodes>
          <leafValues>
            8.4615385532379150e-01 -6.1904764175415039e-01</leafValues></_>
        <_>
          <internalNodes>
            0 -1 3 -2.7996012941002846e-03</internalNodes>
          <leafValues>
            -9.9707341194152832e-01 5.7978051900863647e-01</leafValues></_></weakClassifiers></_>
    <!-- stage 8 -->
    <_>
      <maxWeakCount>2</maxWeakCount>
      <stageThreshold>-2.2575566172599792e-01</stageThreshold>
      <weakClassifiers>
        <_>
          <internalNodes>
            0 -1 14 8.5831414908170700e-03</internalNodes>
          <leafValues>
            -8.2116788625717163e-01 8.0798476934432983e-01</leafValues></_>
        <_>
          <internalNodes>
            0 -1 2 4.2651889089029282e-05</internalNodes>
          <leafValues>
            -9.3365108966827393e-01 5.9541225433349609e-01</leafValues></_></weakClassifiers></_></stages>
  <features>
    <_>
      <rects>
        <_>
          3 16 45 10 -1.</_>
        <_>
          18 16 15 10 3.</_></rects>
      <tilted>0</tilted></_>
    <_>
      <rects>
        <_>
          4 16 28 8 -1.</_>
        <_>
          18 16 14 8 2.</_></rects>
      <tilted>0</tilted></_>
    <_>
      <rects>
        <_>
          7 31 8 2 -1.</_>
        <_>
          11 31 4 2 2.</_></rects>
      <tilted>0</tilted></_>
    <_>
      <rects>
        <_>
          8 17 5 21 -1.</_>
        <_>
          8 24 5 7 3.</_></rects>
      <tilted>0</tilted></_>
    <_>
      <rects>
        <_>
          10 15 27 5 -1.</_>
        <_>
          19 15 9 5 3.</_></rects>
      <tilted>0</tilted></_>
    <_>
      <rects>
        <_>
          10 32 20 10 -1.</_>
        <_>
          10 32 10 5 2.</_>
        <_>
          20 37 10 5 2.</_></rects>
      <tilted>0</tilted></_>
    <_>
      <rects>
        <_>
          11 10 5 28 -1.</_>
        <_>
          11 24 5 14 2.</_></rects>
      <tilted>0</tilted></_>
    <_>
      <rects>
        <_>
          13 5 20 33 -1.</_>
        <_>
          13 16 20 11 3.</_></rects>
      <tilted>0</tilted></_>
    <_>
      <rects>
        <_>
          14 19 22 26 -1.</_>
        <_>
          14 19 11 13 2.</_>
        <_>
          25 32 11 13 2.</_></rects>
      <tilted>0</tilted></_>
    <_>
      <rects>
        <_>
          15 18 30 14 -1.</_>
        <_>
          25 18 10 14 3.</_></rects>
      <tilted>0</tilted></_>
    <_>
      <rects>
        <_>
          17 7 16 27 -1.</_>
        <_>
          17 16 16 9 3.</_></rects>
      <tilted>0</tilted></_>
    <_>
      <rects>
        <_>
          17 19 27 15 -1.</_>
        <_>
          26 19 9 15 3.</_></rects>
      <tilted>0</tilted></_>
    <_>
      <rects>
        <_>
          19 19 27 12 -1.</_>
        <_>
          28 19 9 12 3.</_></rects>
      <tilted>0</tilted></_>
    <_>
      <rects>
        <_>
          20 21 12 4 -1.</_>
        <_>
          24 21 4 4 3.</_></rects>
      <tilted>0</tilted></_>
    <_>
      <rects>
        <_>
          20 23 11 9 -1.</_>
        <_>
          20 26 11 3 3.</_></rects>
      <tilted>0</tilted></_>
    <_>
      <rects>
        <_>
          23 14 10 14 -1.</_>
        <_>
          23 14 5 7 2.</_>
        <_>
          28 21 5 7 2.</_></rects>
      <tilted>0</tilted></_>
    <_>
      <rects>
        <_>
          24 23 3 1 -1.</_>
        <_>
          25 23 1 1 3.</_></rects>
      <tilted>0</tilted></_>
    <_>
      <rects>
        <_>
          25 24 4 9 -1.</_>
        <_>
          25 27 4 3 3.</_></rects>
      <tilted>0</tilted></_></features></cascade>
</opencv_storage>
