<?xml version="1.0"?>
<opencv_storage>
<cascade>
  <stageType>BOOST</stageType>
  <featureType>HAAR</featureType>
  <height>80</height>
  <width>80</width>
  <stageParams>
    <boostType>GAB</boostType>
    <minHitRate>9.9900001287460327e-01</minHitRate>
    <maxFalseAlarm>5.0000000000000000e-01</maxFalseAlarm>
    <weightTrimRate>9.4999999999999996e-01</weightTrimRate>
    <maxDepth>1</maxDepth>
    <maxWeakCount>100</maxWeakCount></stageParams>
  <featureParams>
    <maxCatCount>0</maxCatCount>
    <featSize>1</featSize>
    <mode>ALL</mode></featureParams>
  <stageNum>15</stageNum>
  <stages>
    <!-- stage 0 -->
    <_>
      <maxWeakCount>5</maxWeakCount>
      <stageThreshold>-2.4591276645660400e+00</stageThreshold>
      <weakClassifiers>
        <_>
          <internalNodes>
            0 -1 25 -4.2144715785980225e-02</internalNodes>
          <leafValues>
            5.4945057630538940e-01 -8.8408643007278442e-01</leafValues></_>
        <_>
          <internalNodes>
            0 -1 41 -2.3265648633241653e-03</internalNodes>
          <leafValues>
            4.6807339787483215e-01 -7.3500084877014160e-01</leafValues></_>
        <_>
          <internalNodes>
            0 -1 72 8.3510838449001312e-03</internalNodes>
          <leafValues>
            -8.2813793420791626e-01 4.0692839026451111e-01</leafValues></_>
        <_>
          <internalNodes>
            0 -1 60 1.1045068968087435e-03</internalNodes>
          <leafValues>
            -6.8343633413314819e-01 4.6949833631515503e-01</leafValues></_>
        <_>
          <internalNodes>
            0 -1 35 -3.5915253683924675e-03</internalNodes>
          <leafValues>
            5.3046017885208130e-01 -5.6353241205215454e-01</leafValues></_></weakClassifiers></_>
    <!-- stage 1 -->
    <_>
      <maxWeakCount>5</maxWeakCount>
      <stageThreshold>-2.3596866130828857e+00</stageThreshold>
      <weakClassifiers>
        <_>
          <internalNodes>
            0 -1 66 -6.8299695849418640e-02</internalNodes>
          <leafValues>
            4.2045453190803528e-01 -8.5351562500000000e-01</leafValues></_>
        <_>
          <internalNodes>
            0 -1 6 1.9499938935041428e-02</internalNodes>
          <leafValues>
            -7.7836370468139648e-01 3.5365509986877441e-01</leafValues></_>
        <_>
          <internalNodes>
            0 -1 52 3.0339989461936057e-04</internalNodes>
          <leafValues>
            -5.7962286472320557e-01 5.4462236166000366e-01</leafValues></_>
        <_>
          <internalNodes>
            0 -1 71 -3.2811418641358614e-03</internalNodes>
          <leafValues>
            3.5740026831626892e-01 -7.9513978958129883e-01</leafValues></_>
        <_>
          <internalNodes>
            0 -1 91 -2.2363969947036821e-06</internalNodes>
          <leafValues>
            5.2516090869903564e-01 -5.0558459758758545e-01</leafValues></_></weakClassifiers></_>
    <!-- stage 2 -->
    <_>
      <maxWeakCount>5</maxWeakCount>
      <stageThreshold>-1.5241411924362183e+00</stageThreshold>
      <weakClassifiers>
        <_>
          <internalNodes>
            0 -1 7 -5.8011721819639206e-02</internalNodes>
          <leafValues>
            3.5353535413742065e-01 -8.6826348304748535e-01</leafValues></_>
        <_>
          <internalNodes>
            0 -1 50 1.9770753569900990e-03</internalNodes>
          <leafValues>
            -8.3900982141494751e-01 1.9152519106864929e-01</leafValues></_>
        <_>
          <internalNodes>
            0 -1 15 4.8729497939348221e-03</internalNodes>
          <leafValues>
            -7.8893059492111206e-01 2.6921033859252930e-01</leafValues></_>
        <_>
          <internalNodes>
            0 -1 88 4.2464978992938995e-02</internalNodes>
          <leafValues>
            -3.9592111110687256e-01 7.1027785539627075e-01</leafValues></_>
        <_>
          <internalNodes>
            0 -1 34 -1.8311442108824849e-03</internalNodes>
          <leafValues>
            3.8881322741508484e-01 -7.2069209814071655e-01</leafValues></_></weakClassifiers></_>
    <!-- stage 3 -->
    <_>
      <maxWeakCount>6</maxWeakCount>
      <stageThreshold>-1.5475150346755981e+00</stageThreshold>
      <weakClassifiers>
        <_>
          <internalNodes>
            0 -1 70 2.6984836906194687e-02</internalNodes>
          <leafValues>
            -8.5628741979598999e-01 2.9292929172515869e-01</leafValues></_>
        <_>
          <internalNodes>
            0 -1 37 -2.0833995193243027e-02</internalNodes>
          <leafValues>
            2.3176626861095428e-01 -7.7513200044631958e-01</leafValues></_>
        <_>
          <internalNodes>
            0 -1 80 -1.2849336490035057e-03</internalNodes>
          <leafValues>
            2.5734412670135498e-01 -6.9861555099487305e-01</leafValues></_>
        <_>
          <internalNodes>
            0 -1 47 1.8421624554321170e-03</internalNodes>
          <leafValues>
            -6.8229067325592041e-01 2.9460048675537109e-01</leafValues></_>
        <_>
          <internalNodes>
            0 -1 9 -1.0783879552036524e-03</internalNodes>
          <leafValues>
            -9.4081407785415649e-01 2.3057588934898376e-01</leafValues></_>
        <_>
          <internalNodes>
            0 -1 11 7.5773510616272688e-04</internalNodes>
          <leafValues>
            2.7827504277229309e-01 -7.2802329063415527e-01</leafValues></_></weakClassifiers></_>
    <!-- stage 4 -->
    <_>
      <maxWeakCount>7</maxWeakCount>
      <stageThreshold>-1.5039366483688354e+00</stageThreshold>
      <weakClassifiers>
        <_>
          <internalNodes>
            0 -1 33 4.5603562146425247e-02</internalNodes>
          <leafValues>
            -8.3166331052780151e-01 1.4851485192775726e-01</leafValues></_>
        <_>
          <internalNodes>
            0 -1 63 -3.5857892362400889e-04</internalNodes>
          <leafValues>
            5.1344060897827148e-01 -6.1713796854019165e-01</leafValues></_>
        <_>
          <internalNodes>
            0 -1 73 3.9643526077270508e-02</internalNodes>
          <leafValues>
            -4.1420692205429077e-01 5.8342981338500977e-01</leafValues></_>
        <_>
          <internalNodes>
            0 -1 49 -5.3471396677196026e-04</internalNodes>
          <leafValues>
            2.8150790929794312e-01 -7.4264878034591675e-01</leafValues></_>
        <_>
          <internalNodes>
            0 -1 42 -3.8387379609048367e-03</internalNodes>
          <leafValues>
            -8.1502372026443481e-01 2.7923542261123657e-01</leafValues></_>
        <_>
          <internalNodes>
            0 -1 20 2.6021183002740145e-03</internalNodes>
          <leafValues>
            -3.7634900212287903e-01 6.4163613319396973e-01</leafValues></_>
        <_>
          <internalNodes>
            0 -1 18 -1.0255175875499845e-03</internalNodes>
          <leafValues>
            -8.1602400541305542e-01 2.7129963040351868e-01</leafValues></_></weakClassifiers></_>
    <!-- stage 5 -->
    <_>
      <maxWeakCount>6</maxWeakCount>
      <stageThreshold>-1.5904476642608643e+00</stageThreshold>
      <weakClassifiers>
        <_>
          <internalNodes>
            0 -1 30 4.9437008798122406e-02</internalNodes>
          <leafValues>
            -8.3166331052780151e-01 1.4851485192775726e-01</leafValues></_>
        <_>
          <internalNodes>
            0 -1 68 1.1068185558542609e-03</internalNodes>
          <leafValues>
            -6.0061824321746826e-01 3.8951647281646729e-01</leafValues></_>
        <_>
          <internalNodes>
            0 -1 4 5.5953394621610641e-03</internalNodes>
          <leafValues>
            -3.9736303687095642e-01 5.7592731714248657e-01</leafValues></_>
        <_>
          <internalNodes>
            0 -1 23 1.0127474752152921e-06</internalNodes>
          <leafValues>
            -3.3703336119651794e-01 6.1016625165939331e-01</leafValues></_>
        <_>
          <internalNodes>
            0 -1 78 1.5000722371041775e-02</internalNodes>
          <leafValues>
            -5.2437132596969604e-01 4.1547691822052002e-01</leafValues></_>
        <_>
          <internalNodes>
            0 -1 44 -1.7251297831535339e-03</internalNodes>
          <leafValues>
            -7.8644627332687378e-01 2.6195272803306580e-01</leafValues></_></weakClassifiers></_>
    <!-- stage 6 -->
    <_>
      <maxWeakCount>4</maxWeakCount>
      <stageThreshold>-1.0942596197128296e+00</stageThreshold>
      <weakClassifiers>
        <_>
          <internalNodes>
            0 -1 51 3.3569470047950745e-02</internalNodes>
          <leafValues>
            -8.3248209953308105e-01 6.7873306572437286e-02</leafValues></_>
        <_>
          <internalNodes>
            0 -1 21 -2.6971548795700073e-02</internalNodes>
          <leafValues>
            3.6303851008415222e-01 -5.4564404487609863e-01</leafValues></_>
        <_>
          <internalNodes>
            0 -1 12 1.3867507223039865e-03</internalNodes>
          <leafValues>
            2.1711750328540802e-01 -8.9162933826446533e-01</leafValues></_>
        <_>
          <internalNodes>
            0 -1 22 -4.0577098727226257e-02</internalNodes>
          <leafValues>
            -7.9969084262847900e-01 2.6681336760520935e-01</leafValues></_></weakClassifiers></_>
    <!-- stage 7 -->
    <_>
      <maxWeakCount>7</maxWeakCount>
      <stageThreshold>-2.0538649559020996e+00</stageThreshold>
      <weakClassifiers>
        <_>
          <internalNodes>
            0 -1 10 -2.5162085890769958e-02</internalNodes>
          <leafValues>
            -1.6393441706895828e-02 -8.3263599872589111e-01</leafValues></_>
        <_>
          <internalNodes>
            0 -1 64 6.0150440549477935e-04</internalNodes>
          <leafValues>
            -7.0760637521743774e-01 1.6108861565589905e-01</leafValues></_>
        <_>
          <internalNodes>
            0 -1 31 -1.0937825776636600e-02</internalNodes>
          <leafValues>
            2.2778281569480896e-01 -7.3145264387130737e-01</leafValues></_>
        <_>
          <internalNodes>
            0 -1 48 1.4177460689097643e-03</internalNodes>
          <leafValues>
            -7.7252709865570068e-01 2.7469784021377563e-01</leafValues></_>
        <_>
          <internalNodes>
            0 -1 89 3.3277367037953809e-05</internalNodes>
          <leafValues>
            1.8163906037807465e-01 -9.2014539241790771e-01</leafValues></_>
        <_>
          <internalNodes>
            0 -1 3 2.6946826837956905e-03</internalNodes>
          <leafValues>
            -3.8565269112586975e-01 4.9226757884025574e-01</leafValues></_>
        <_>
          <internalNodes>
            0 -1 84 6.0208386275917292e-04</internalNodes>
          <leafValues>
            2.3513525724411011e-01 -8.7226021289825439e-01</leafValues></_></weakClassifiers></_>
    <!-- stage 8 -->
    <_>
      <maxWeakCount>6</maxWeakCount>
      <stageThreshold>-1.5589387416839600e+00</stageThreshold>
      <weakClassifiers>
        <_>
          <internalNodes>
            0 -1 14 8.0127283930778503e-02</internalNodes>
          <leafValues>
            -7.8968256711959839e-01 -2.0833333954215050e-02</leafValues></_>
        <_>
          <internalNodes>
            0 -1 61 2.1788789581478341e-06</internalNodes>
          <leafValues>
            -6.6456449031829834e-01 2.0928482711315155e-01</leafValues></_>
        <_>
          <internalNodes>
            0 -1 85 3.3433298813179135e-04</internalNodes>
          <leafValues>
            2.3151427507400513e-01 -7.1478116512298584e-01</leafValues></_>
        <_>
          <internalNodes>
            0 -1 65 3.6800302041228861e-05</internalNodes>
          <leafValues>
            -6.9750821590423584e-01 2.7233579754829407e-01</leafValues></_>
        <_>
          <internalNodes>
            0 -1 16 2.3820174857974052e-02</internalNodes>
          <leafValues>
            1.9597892463207245e-01 -7.6930677890777588e-01</leafValues></_>
        <_>
          <internalNodes>
            0 -1 27 -5.2470815717242658e-05</internalNodes>
          <leafValues>
            -8.0452072620391846e-01 1.9832140207290649e-01</leafValues></_></weakClassifiers></_>
    <!-- stage 9 -->
    <_>
      <maxWeakCount>6</maxWeakCount>
      <stageThreshold>-1.5289304256439209e+00</stageThreshold>
      <weakClassifiers>
        <_>
          <internalNodes>
            0 -1 55 -4.0535931475460529e-04</internalNodes>
          <leafValues>
            -1.7123287916183472e-01 -8.2599121332168579e-01</leafValues></_>
        <_>
          <internalNodes>
            0 -1 8 -2.6713304221630096e-02</internalNodes>
          <leafValues>
            3.2457846403121948e-01 -5.6571906805038452e-01</leafValues></_>
        <_>
          <internalNodes>
            0 -1 62 -9.0606372395996004e-05</internalNodes>
          <leafValues>
            3.8907924294471741e-01 -4.3507888913154602e-01</leafValues></_>
        <_>
          <internalNodes>
            0 -1 28 6.2366991187445819e-05</internalNodes>
          <leafValues>
            2.2604577243328094e-01 -7.9631012678146362e-01</leafValues></_>
        <_>
          <internalNodes>
            0 -1 32 -9.4570184592157602e-04</internalNodes>
          <leafValues>
            2.3585008084774017e-01 -7.2029823064804077e-01</leafValues></_>
        <_>
          <internalNodes>
            0 -1 90 -3.2029091380536556e-03</internalNodes>
          <leafValues>
            -8.5613691806793213e-01 1.7834950983524323e-01</leafValues></_></weakClassifiers></_>
    <!-- stage 10 -->
    <_>
      <maxWeakCount>7</maxWeakCount>
      <stageThreshold>-1.8018498420715332e+00</stageThreshold>
      <weakClassifiers>
        <_>
          <internalNodes>
            0 -1 76 -5.2493234397843480e-04</internalNodes>
          <leafValues>
            -8.9285716414451599e-02 -7.9918032884597778e-01</leafValues></_>
        <_>
          <internalNodes>
            0 -1 61 1.2818910590794985e-06</internalNodes>
          <leafValues>
            -6.4900225400924683e-01 1.8571510910987854e-01</leafValues></_>
        <_>
          <internalNodes>
            0 -1 93 -6.5827835351228714e-03</internalNodes>
          <leafValues>
            3.6355146765708923e-01 -4.3895819783210754e-01</leafValues></_>
        <_>
          <internalNodes>
            0 -1 87 3.0739735811948776e-03</internalNodes>
          <leafValues>
            2.0453433692455292e-01 -7.6699191331863403e-01</leafValues></_>
        <_>
          <internalNodes>
            0 -1 67 -1.8761643441393971e-03</internalNodes>
          <leafValues>
            -9.1528302431106567e-01 1.7891713976860046e-01</leafValues></_>
        <_>
          <internalNodes>
            0 -1 77 9.3063645181246102e-06</internalNodes>
          <leafValues>
            -6.5273803472518921e-01 2.4762371182441711e-01</leafValues></_>
        <_>
          <internalNodes>
            0 -1 82 1.3169890735298395e-03</internalNodes>
          <leafValues>
            -5.2254480123519897e-01 3.5457754135131836e-01</leafValues></_></weakClassifiers></_>
    <!-- stage 11 -->
    <_>
      <maxWeakCount>7</maxWeakCount>
      <stageThreshold>-1.8189007043838501e+00</stageThreshold>
      <weakClassifiers>
        <_>
          <internalNodes>
            0 -1 0 1.2097150087356567e-02</internalNodes>
          <leafValues>
            -7.2193437814712524e-01 8.5714286565780640e-01</leafValues></_>
        <_>
          <internalNodes>
            0 -1 45 -9.7228970844298601e-04</internalNodes>
          <leafValues>
            3.0451545119285583e-01 -5.7022809982299805e-01</leafValues></_>
        <_>
          <internalNodes>
            0 -1 38 -3.9404505514539778e-05</internalNodes>
          <leafValues>
            -7.2844684123992920e-01 2.3519061505794525e-01</leafValues></_>
        <_>
          <internalNodes>
            0 -1 5 2.9294237494468689e-02</internalNodes>
          <leafValues>
            -5.5267840623855591e-01 3.0616545677185059e-01</leafValues></_>
        <_>
          <internalNodes>
            0 -1 36 -1.0995611548423767e-02</internalNodes>
          <leafValues>
            -8.8044577836990356e-01 2.0584698021411896e-01</leafValues></_>
        <_>
          <internalNodes>
            0 -1 83 1.1813752353191376e-03</internalNodes>
          <leafValues>
            1.7065483331680298e-01 -8.7804359197616577e-01</leafValues></_>
        <_>
          <internalNodes>
            0 -1 39 -1.3110209256410599e-03</internalNodes>
          <leafValues>
            2.7531400322914124e-01 -5.8575230836868286e-01</leafValues></_></weakClassifiers></_>
    <!-- stage 12 -->
    <_>
      <maxWeakCount>9</maxWeakCount>
      <stageThreshold>-1.5738946199417114e+00</stageThreshold>
      <weakClassifiers>
        <_>
          <internalNodes>
            0 -1 59 -1.0493122972548008e-03</internalNodes>
          <leafValues>
            -1.0655737668275833e-01 -8.0962342023849487e-01</leafValues></_>
        <_>
          <internalNodes>
            0 -1 1 1.6606943681836128e-02</internalNodes>
          <leafValues>
            -4.7053241729736328e-01 3.2414838671684265e-01</leafValues></_>
        <_>
          <internalNodes>
            0 -1 69 -5.8263988466933370e-04</internalNodes>
          <leafValues>
            3.5007244348526001e-01 -4.5723965764045715e-01</leafValues></_>
        <_>
          <internalNodes>
            0 -1 24 1.3768819626420736e-03</internalNodes>
          <leafValues>
            -4.0742790699005127e-01 3.9572840929031372e-01</leafValues></_>
        <_>
          <internalNodes>
            0 -1 40 9.7794272005558014e-03</internalNodes>
          <leafValues>
            1.7101913690567017e-01 -9.0657687187194824e-01</leafValues></_>
        <_>
          <internalNodes>
            0 -1 56 4.7425751108676195e-04</internalNodes>
          <leafValues>
            -4.8406800627708435e-01 3.5440629720687866e-01</leafValues></_>
        <_>
          <internalNodes>
            0 -1 92 -8.9802462607622147e-03</internalNodes>
          <leafValues>
            4.7776928544044495e-01 -3.8079848885536194e-01</leafValues></_>
        <_>
          <internalNodes>
            0 -1 57 2.6184858870692551e-04</internalNodes>
          <leafValues>
            1.8907000124454498e-01 -9.5336717367172241e-01</leafValues></_>
        <_>
          <internalNodes>
            0 -1 13 -1.8354943022131920e-03</internalNodes>
          <leafValues>
            3.6791127920150757e-01 -4.6583414077758789e-01</leafValues></_></weakClassifiers></_>
    <!-- stage 13 -->
    <_>
      <maxWeakCount>9</maxWeakCount>
      <stageThreshold>-1.7542649507522583e+00</stageThreshold>
      <weakClassifiers>
        <_>
          <internalNodes>
            0 -1 75 3.1201858655549586e-04</internalNodes>
          <leafValues>
            -7.5115209817886353e-01 1.3043478131294250e-01</leafValues></_>
        <_>
          <internalNodes>
            0 -1 74 1.0804920457303524e-03</internalNodes>
          <leafValues>
            -6.6493010520935059e-01 1.6946960985660553e-01</leafValues></_>
        <_>
          <internalNodes>
            0 -1 26 -1.1804376845248044e-04</internalNodes>
          <leafValues>
            -7.0714187622070312e-01 2.1858718991279602e-01</leafValues></_>
        <_>
          <internalNodes>
            0 -1 53 4.7724615433253348e-04</internalNodes>
          <leafValues>
            -5.0317430496215820e-01 3.7905746698379517e-01</leafValues></_>
        <_>
          <internalNodes>
            0 -1 58 -4.3504187487997115e-05</internalNodes>
          <leafValues>
            -6.8523877859115601e-01 2.4925647675991058e-01</leafValues></_>
        <_>
          <internalNodes>
            0 -1 29 2.8029011446051300e-05</internalNodes>
          <leafValues>
            1.7898641526699066e-01 -8.2433706521987915e-01</leafValues></_>
        <_>
          <internalNodes>
            0 -1 43 1.0931616416200995e-03</internalNodes>
          <leafValues>
            -3.0236136913299561e-01 6.4094102382659912e-01</leafValues></_>
        <_>
          <internalNodes>
            0 -1 2 1.4660846441984177e-02</internalNodes>
          <leafValues>
            -3.0039095878601074e-01 5.2395021915435791e-01</leafValues></_>
        <_>
          <internalNodes>
            0 -1 79 -3.0820735264569521e-04</internalNodes>
          <leafValues>
            -8.8509213924407959e-01 2.1224309504032135e-01</leafValues></_></weakClassifiers></_>
    <!-- stage 14 -->
    <_>
      <maxWeakCount>6</maxWeakCount>
      <stageThreshold>-1.4110425710678101e+00</stageThreshold>
      <weakClassifiers>
        <_>
          <internalNodes>
            0 -1 54 2.5763828307390213e-04</internalNodes>
          <leafValues>
            -8.1739127635955811e-01 -1.7142857611179352e-01</leafValues></_>
        <_>
          <internalNodes>
            0 -1 19 -1.4705725945532322e-02</internalNodes>
          <leafValues>
            3.3733507990837097e-01 -4.7076666355133057e-01</leafValues></_>
        <_>
          <internalNodes>
            0 -1 86 -2.7799373492598534e-03</internalNodes>
          <leafValues>
            2.6428514719009399e-01 -6.2155133485794067e-01</leafValues></_>
        <_>
          <internalNodes>
            0 -1 46 8.5847219452261925e-03</internalNodes>
          <leafValues>
            1.6879761219024658e-01 -8.8515472412109375e-01</leafValues></_>
        <_>
          <internalNodes>
            0 -1 17 -3.6889773327857256e-03</internalNodes>
          <leafValues>
            -8.3380681276321411e-01 2.3009155690670013e-01</leafValues></_>
        <_>
          <internalNodes>
            0 -1 81 -1.8272406887263060e-03</internalNodes>
          <leafValues>
            -9.5379954576492310e-01 9.9777519702911377e-02</leafValues></_></weakClassifiers></_></stages>
  <features>
    <_>
      <rects>
        <_>
          0 0 74 2 -1.</_>
        <_>
          0 1 74 1 2.</_></rects>
      <tilted>0</tilted></_>
    <_>
      <rects>
        <_>
          0 0 74 10 -1.</_>
        <_>
          0 5 74 5 2.</_></rects>
      <tilted>0</tilted></_>
    <_>
      <rects>
        <_>
          0 7 12 54 -1.</_>
        <_>
          6 7 6 54 2.</_></rects>
      <tilted>0</tilted></_>
    <_>
      <rects>
        <_>
          0 10 22 3 -1.</_>
        <_>
          11 10 11 3 2.</_></rects>
      <tilted>0</tilted></_>
    <_>
      <rects>
        <_>
          0 21 8 42 -1.</_>
        <_>
          4 21 4 42 2.</_></rects>
      <tilted>0</tilted></_>
    <_>
      <rects>
        <_>
          0 22 40 47 -1.</_>
        <_>
          10 22 20 47 2.</_></rects>
      <tilted>0</tilted></_>
    <_>
      <rects>
        <_>
          0 28 36 27 -1.</_>
        <_>
          12 28 12 27 3.</_></rects>
      <tilted>0</tilted></_>
    <_>
      <rects>
        <_>
          1 9 50 34 -1.</_>
        <_>
          1 9 25 17 2.</_>
        <_>
          26 26 25 17 2.</_></rects>
      <tilted>0</tilted></_>
    <_>
      <rects>
        <_>
          2 15 52 18 -1.</_>
        <_>
          2 15 26 9 2.</_>
        <_>
          28 24 26 9 2.</_></rects>
      <tilted>0</tilted></_>
    <_>
      <rects>
        <_>
          2 40 15 9 -1.</_>
        <_>
          2 43 15 3 3.</_></rects>
      <tilted>0</tilted></_>
    <_>
      <rects>
        <_>
          3 17 46 16 -1.</_>
        <_>
          3 17 23 8 2.</_>
        <_>
          26 25 23 8 2.</_></rects>
      <tilted>0</tilted></_>
    <_>
      <rects>
        <_>
          3 40 15 9 -1.</_>
        <_>
          3 43 15 3 3.</_></rects>
      <tilted>0</tilted></_>
    <_>
      <rects>
        <_>
          4 30 69 20 -1.</_>
        <_>
          4 35 69 10 2.</_></rects>
      <tilted>0</tilted></_>
    <_>
      <rects>
        <_>
          4 50 46 12 -1.</_>
        <_>
          4 54 46 4 3.</_></rects>
      <tilted>0</tilted></_>
    <_>
      <rects>
        <_>
          5 0 69 32 -1.</_>
        <_>
          5 8 69 16 2.</_></rects>
      <tilted>0</tilted></_>
    <_>
      <rects>
        <_>
          5 26 30 19 -1.</_>
        <_>
          15 26 10 19 3.</_></rects>
      <tilted>0</tilted></_>
    <_>
      <rects>
        <_>
          5 38 70 14 -1.</_>
        <_>
          40 38 35 14 2.</_></rects>
      <tilted>0</tilted></_>
    <_>
      <rects>
        <_>
          7 24 13 27 -1.</_>
        <_>
          7 33 13 9 3.</_></rects>
      <tilted>0</tilted></_>
    <_>
      <rects>
        <_>
          7 31 12 15 -1.</_>
        <_>
          7 36 12 5 3.</_></rects>
      <tilted>0</tilted></_>
    <_>
      <rects>
        <_>
          8 70 72 10 -1.</_>
        <_>
          8 75 72 5 2.</_></rects>
      <tilted>0</tilted></_>
    <_>
      <rects>
        <_>
          9 0 69 4 -1.</_>
        <_>
          9 2 69 2 2.</_></rects>
      <tilted>0</tilted></_>
    <_>
      <rects>
        <_>
          9 64 70 16 -1.</_>
        <_>
          9 72 70 8 2.</_></rects>
      <tilted>0</tilted></_>
    <_>
      <rects>
        <_>
          10 16 62 50 -1.</_>
        <_>
          41 16 31 50 2.</_></rects>
      <tilted>0</tilted></_>
    <_>
      <rects>
        <_>
          12 64 2 2 -1.</_>
        <_>
          12 64 1 1 2.</_>
        <_>
          13 65 1 1 2.</_></rects>
      <tilted>0</tilted></_>
    <_>
      <rects>
        <_>
          13 26 12 14 -1.</_>
        <_>
          16 26 6 14 2.</_></rects>
      <tilted>0</tilted></_>
    <_>
      <rects>
        <_>
          14 31 56 13 -1.</_>
        <_>
          28 31 28 13 2.</_></rects>
      <tilted>0</tilted></_>
    <_>
      <rects>
        <_>
          14 35 3 9 -1.</_>
        <_>
          15 38 1 3 9.</_></rects>
      <tilted>0</tilted></_>
    <_>
      <rects>
        <_>
          14 37 1 9 -1.</_>
        <_>
          14 40 1 3 3.</_></rects>
      <tilted>0</tilted></_>
    <_>
      <rects>
        <_>
          15 36 2 8 -1.</_>
        <_>
          15 38 2 4 2.</_></rects>
      <tilted>0</tilted></_>
    <_>
      <rects>
        <_>
          16 34 1 4 -1.</_>
        <_>
          16 36 1 2 2.</_></rects>
      <tilted>0</tilted></_>
    <_>
      <rects>
        <_>
          17 0 28 17 -1.</_>
        <_>
          24 7 14 17 2.</_></rects>
      <tilted>1</tilted></_>
    <_>
      <rects>
        <_>
          21 14 40 61 -1.</_>
        <_>
          31 14 20 61 2.</_></rects>
      <tilted>0</tilted></_>
    <_>
      <rects>
        <_>
          21 24 21 22 -1.</_>
        <_>
          28 24 7 22 3.</_></rects>
      <tilted>0</tilted></_>
    <_>
      <rects>
        <_>
          23 0 24 23 -1.</_>
        <_>
          29 6 12 23 2.</_></rects>
      <tilted>1</tilted></_>
    <_>
      <rects>
        <_>
          23 11 36 23 -1.</_>
        <_>
          32 11 18 23 2.</_></rects>
      <tilted>0</tilted></_>
    <_>
      <rects>
        <_>
          23 29 16 16 -1.</_>
        <_>
          23 33 16 8 2.</_></rects>
      <tilted>0</tilted></_>
    <_>
      <rects>
        <_>
          23 34 28 14 -1.</_>
        <_>
          30 34 14 14 2.</_></rects>
      <tilted>0</tilted></_>
    <_>
      <rects>
        <_>
          24 21 15 33 -1.</_>
        <_>
          29 32 5 11 9.</_></rects>
      <tilted>0</tilted></_>
    <_>
      <rects>
        <_>
          24 25 1 8 -1.</_>
        <_>
          24 25 1 4 2.</_></rects>
      <tilted>1</tilted></_>
    <_>
      <rects>
        <_>
          25 16 21 12 -1.</_>
        <_>
          22 19 21 6 2.</_></rects>
      <tilted>1</tilted></_>
    <_>
      <rects>
        <_>
          26 19 24 22 -1.</_>
        <_>
          34 19 8 22 3.</_></rects>
      <tilted>0</tilted></_>
    <_>
      <rects>
        <_>
          26 36 12 8 -1.</_>
        <_>
          30 36 4 8 3.</_></rects>
      <tilted>0</tilted></_>
    <_>
      <rects>
        <_>
          27 31 24 14 -1.</_>
        <_>
          35 31 8 14 3.</_></rects>
      <tilted>0</tilted></_>
    <_>
      <rects>
        <_>
          28 36 8 9 -1.</_>
        <_>
          28 39 8 3 3.</_></rects>
      <tilted>0</tilted></_>
    <_>
      <rects>
        <_>
          29 20 34 1 -1.</_>
        <_>
          29 20 17 1 2.</_></rects>
      <tilted>1</tilted></_>
    <_>
      <rects>
        <_>
          29 35 6 11 -1.</_>
        <_>
          31 35 2 11 3.</_></rects>
      <tilted>0</tilted></_>
    <_>
      <rects>
        <_>
          30 32 12 20 -1.</_>
        <_>
          30 32 6 20 2.</_></rects>
      <tilted>1</tilted></_>
    <_>
      <rects>
        <_>
          30 38 12 12 -1.</_>
        <_>
          34 42 4 4 9.</_></rects>
      <tilted>0</tilted></_>
    <_>
      <rects>
        <_>
          30 39 21 12 -1.</_>
        <_>
          37 43 7 4 9.</_></rects>
      <tilted>0</tilted></_>
    <_>
      <rects>
        <_>
          31 22 24 13 -1.</_>
        <_>
          37 22 12 13 2.</_></rects>
      <tilted>0</tilted></_>
    <_>
      <rects>
        <_>
          31 37 14 10 -1.</_>
        <_>
          31 42 14 5 2.</_></rects>
      <tilted>0</tilted></_>
    <_>
      <rects>
        <_>
          32 0 17 33 -1.</_>
        <_>
          32 11 17 11 3.</_></rects>
      <tilted>0</tilted></_>
    <_>
      <rects>
        <_>
          32 37 8 5 -1.</_>
        <_>
          34 37 4 5 2.</_></rects>
      <tilted>0</tilted></_>
    <_>
      <rects>
        <_>
          33 32 6 9 -1.</_>
        <_>
          35 35 2 3 9.</_></rects>
      <tilted>0</tilted></_>
    <_>
      <rects>
        <_>
          34 36 4 6 -1.</_>
        <_>
          35 36 2 6 2.</_></rects>
      <tilted>0</tilted></_>
    <_>
      <rects>
        <_>
          35 34 3 6 -1.</_>
        <_>
          36 35 1 6 3.</_></rects>
      <tilted>1</tilted></_>
    <_>
      <rects>
        <_>
          35 34 9 6 -1.</_>
        <_>
          38 36 3 2 9.</_></rects>
      <tilted>0</tilted></_>
    <_>
      <rects>
        <_>
          36 28 4 5 -1.</_>
        <_>
          38 28 2 5 2.</_></rects>
      <tilted>0</tilted></_>
    <_>
      <rects>
        <_>
          36 34 12 1 -1.</_>
        <_>
          40 34 4 1 3.</_></rects>
      <tilted>0</tilted></_>
    <_>
      <rects>
        <_>
          36 39 9 3 -1.</_>
        <_>
          39 39 3 3 3.</_></rects>
      <tilted>0</tilted></_>
    <_>
      <rects>
        <_>
          37 39 9 12 -1.</_>
        <_>
          37 43 9 4 3.</_></rects>
      <tilted>0</tilted></_>
    <_>
      <rects>
        <_>
          38 33 4 2 -1.</_>
        <_>
          38 34 4 1 2.</_></rects>
      <tilted>0</tilted></_>
    <_>
      <rects>
        <_>
          38 35 4 7 -1.</_>
        <_>
          39 35 2 7 2.</_></rects>
      <tilted>0</tilted></_>
    <_>
      <rects>
        <_>
          38 37 5 4 -1.</_>
        <_>
          38 39 5 2 2.</_></rects>
      <tilted>0</tilted></_>
    <_>
      <rects>
        <_>
          39 33 12 9 -1.</_>
        <_>
          43 36 4 3 9.</_></rects>
      <tilted>0</tilted></_>
    <_>
      <rects>
        <_>
          41 41 6 9 -1.</_>
        <_>
          43 44 2 3 9.</_></rects>
      <tilted>0</tilted></_>
    <_>
      <rects>
        <_>
          42 17 15 42 -1.</_>
        <_>
          47 31 5 14 9.</_></rects>
      <tilted>0</tilted></_>
    <_>
      <rects>
        <_>
          45 18 18 8 -1.</_>
        <_>
          51 18 6 8 3.</_></rects>
      <tilted>0</tilted></_>
    <_>
      <rects>
        <_>
          45 36 6 6 -1.</_>
        <_>
          47 38 2 6 3.</_></rects>
      <tilted>1</tilted></_>
    <_>
      <rects>
        <_>
          46 36 6 44 -1.</_>
        <_>
          48 36 2 44 3.</_></rects>
      <tilted>0</tilted></_>
    <_>
      <rects>
        <_>
          47 7 20 38 -1.</_>
        <_>
          47 7 10 19 2.</_>
        <_>
          57 26 10 19 2.</_></rects>
      <tilted>0</tilted></_>
    <_>
      <rects>
        <_>
          47 34 28 24 -1.</_>
        <_>
          47 34 14 12 2.</_>
        <_>
          61 46 14 12 2.</_></rects>
      <tilted>0</tilted></_>
    <_>
      <rects>
        <_>
          48 18 30 27 -1.</_>
        <_>
          58 18 10 27 3.</_></rects>
      <tilted>0</tilted></_>
    <_>
      <rects>
        <_>
          48 21 32 42 -1.</_>
        <_>
          56 21 16 42 2.</_></rects>
      <tilted>0</tilted></_>
    <_>
      <rects>
        <_>
          48 32 1 30 -1.</_>
        <_>
          48 47 1 15 2.</_></rects>
      <tilted>0</tilted></_>
    <_>
      <rects>
        <_>
          50 0 3 3 -1.</_>
        <_>
          50 1 3 1 3.</_></rects>
      <tilted>0</tilted></_>
    <_>
      <rects>
        <_>
          50 38 3 6 -1.</_>
        <_>
          51 39 1 6 3.</_></rects>
      <tilted>1</tilted></_>
    <_>
      <rects>
        <_>
          53 19 2 16 -1.</_>
        <_>
          54 19 1 16 2.</_></rects>
      <tilted>0</tilted></_>
    <_>
      <rects>
        <_>
          53 36 21 23 -1.</_>
        <_>
          60 43 7 23 3.</_></rects>
      <tilted>1</tilted></_>
    <_>
      <rects>
        <_>
          54 24 4 6 -1.</_>
        <_>
          55 25 2 6 2.</_></rects>
      <tilted>1</tilted></_>
    <_>
      <rects>
        <_>
          55 25 12 13 -1.</_>
        <_>
          58 28 6 13 2.</_></rects>
      <tilted>1</tilted></_>
    <_>
      <rects>
        <_>
          58 22 9 5 -1.</_>
        <_>
          61 25 3 5 3.</_></rects>
      <tilted>1</tilted></_>
    <_>
      <rects>
        <_>
          59 30 9 27 -1.</_>
        <_>
          62 39 3 9 9.</_></rects>
      <tilted>0</tilted></_>
    <_>
      <rects>
        <_>
          59 41 16 9 -1.</_>
        <_>
          59 44 16 3 3.</_></rects>
      <tilted>0</tilted></_>
    <_>
      <rects>
        <_>
          60 37 11 9 -1.</_>
        <_>
          60 40 11 3 3.</_></rects>
      <tilted>0</tilted></_>
    <_>
      <rects>
        <_>
          61 41 17 20 -1.</_>
        <_>
          61 51 17 10 2.</_></rects>
      <tilted>0</tilted></_>
    <_>
      <rects>
        <_>
          62 26 8 15 -1.</_>
        <_>
          62 26 4 15 2.</_></rects>
      <tilted>1</tilted></_>
    <_>
      <rects>
        <_>
          62 34 13 15 -1.</_>
        <_>
          57 39 13 5 3.</_></rects>
      <tilted>1</tilted></_>
    <_>
      <rects>
        <_>
          64 0 10 80 -1.</_>
        <_>
          64 20 10 40 2.</_></rects>
      <tilted>0</tilted></_>
    <_>
      <rects>
        <_>
          64 41 1 4 -1.</_>
        <_>
          64 43 1 2 2.</_></rects>
      <tilted>0</tilted></_>
    <_>
      <rects>
        <_>
          66 43 7 15 -1.</_>
        <_>
          61 48 7 5 3.</_></rects>
      <tilted>1</tilted></_>
    <_>
      <rects>
        <_>
          67 78 4 2 -1.</_>
        <_>
          67 79 4 1 2.</_></rects>
      <tilted>0</tilted></_>
    <_>
      <rects>
        <_>
          69 24 3 56 -1.</_>
        <_>
          69 52 3 28 2.</_></rects>
      <tilted>0</tilted></_>
    <_>
      <rects>
        <_>
          70 19 10 48 -1.</_>
        <_>
          75 19 5 48 2.</_></rects>
      <tilted>0</tilted></_></features></cascade>
</opencv_storage>
