<?xml version="1.0"?>
<opencv_storage>
<cascade>
  <stageType>BOOST</stageType>
  <featureType>HAAR</featureType>
  <height>80</height>
  <width>80</width>
  <stageParams>
    <boostType>GAB</boostType>
    <minHitRate>9.9900001287460327e-01</minHitRate>
    <maxFalseAlarm>5.0000000000000000e-01</maxFalseAlarm>
    <weightTrimRate>9.4999999999999996e-01</weightTrimRate>
    <maxDepth>1</maxDepth>
    <maxWeakCount>100</maxWeakCount></stageParams>
  <featureParams>
    <maxCatCount>0</maxCatCount>
    <featSize>1</featSize>
    <mode>ALL</mode></featureParams>
  <stageNum>20</stageNum>
  <stages>
    <!-- stage 0 -->
    <_>
      <maxWeakCount>3</maxWeakCount>
      <stageThreshold>-1.1033315658569336e+00</stageThreshold>
      <weakClassifiers>
        <_>
          <internalNodes>
            0 -1 15 -2.3062912747263908e-02</internalNodes>
          <leafValues>
            6.7500001192092896e-01 -9.1794872283935547e-01</leafValues></_>
        <_>
          <internalNodes>
            0 -1 53 2.2374702617526054e-02</internalNodes>
          <leafValues>
            -7.6942050457000732e-01 7.2268313169479370e-01</leafValues></_>
        <_>
          <internalNodes>
            0 -1 6 2.3686254862695932e-03</internalNodes>
          <leafValues>
            -9.0806591510772705e-01 5.9003686904907227e-01</leafValues></_></weakClassifiers></_>
    <!-- stage 1 -->
    <_>
      <maxWeakCount>2</maxWeakCount>
      <stageThreshold>-3.8569965958595276e-01</stageThreshold>
      <weakClassifiers>
        <_>
          <internalNodes>
            0 -1 63 1.7597090452909470e-02</internalNodes>
          <leafValues>
            -8.5000002384185791e-01 6.0000002384185791e-01</leafValues></_>
        <_>
          <internalNodes>
            0 -1 24 -7.4776378460228443e-04</internalNodes>
          <leafValues>
            4.6430033445358276e-01 -8.7669056653976440e-01</leafValues></_></weakClassifiers></_>
    <!-- stage 2 -->
    <_>
      <maxWeakCount>3</maxWeakCount>
      <stageThreshold>-1.0495846271514893e+00</stageThreshold>
      <weakClassifiers>
        <_>
          <internalNodes>
            0 -1 28 8.4391292184591293e-03</internalNodes>
          <leafValues>
            -8.7165772914886475e-01 4.3181818723678589e-01</leafValues></_>
        <_>
          <internalNodes>
            0 -1 1 2.5936447083950043e-02</internalNodes>
          <leafValues>
            -7.2590368986129761e-01 7.7548539638519287e-01</leafValues></_>
        <_>
          <internalNodes>
            0 -1 37 -2.4958532303571701e-02</internalNodes>
          <leafValues>
            5.4797685146331787e-01 -9.0666037797927856e-01</leafValues></_></weakClassifiers></_>
    <!-- stage 3 -->
    <_>
      <maxWeakCount>3</maxWeakCount>
      <stageThreshold>-9.7475844621658325e-01</stageThreshold>
      <weakClassifiers>
        <_>
          <internalNodes>
            0 -1 27 -2.3455306887626648e-02</internalNodes>
          <leafValues>
            4.2222222685813904e-01 -8.8108110427856445e-01</leafValues></_>
        <_>
          <internalNodes>
            0 -1 45 3.5600834526121616e-03</internalNodes>
          <leafValues>
            -7.1952825784683228e-01 6.8189543485641479e-01</leafValues></_>
        <_>
          <internalNodes>
            0 -1 5 1.7462287098169327e-02</internalNodes>
          <leafValues>
            -6.7745238542556763e-01 7.8083807229995728e-01</leafValues></_></weakClassifiers></_>
    <!-- stage 4 -->
    <_>
      <maxWeakCount>2</maxWeakCount>
      <stageThreshold>-3.5154324769973755e-01</stageThreshold>
      <weakClassifiers>
        <_>
          <internalNodes>
            0 -1 49 1.6138753853738308e-03</internalNodes>
          <leafValues>
            -7.3023253679275513e-01 5.3333336114883423e-01</leafValues></_>
        <_>
          <internalNodes>
            0 -1 52 -7.4915597215294838e-03</internalNodes>
          <leafValues>
            3.7868928909301758e-01 -8.8411962985992432e-01</leafValues></_></weakClassifiers></_>
    <!-- stage 5 -->
    <_>
      <maxWeakCount>3</maxWeakCount>
      <stageThreshold>-8.7855732440948486e-01</stageThreshold>
      <weakClassifiers>
        <_>
          <internalNodes>
            0 -1 67 1.5108423307538033e-02</internalNodes>
          <leafValues>
            -7.3023253679275513e-01 5.3333336114883423e-01</leafValues></_>
        <_>
          <internalNodes>
            0 -1 48 7.5346245430409908e-03</internalNodes>
          <leafValues>
            -7.6348161697387695e-01 5.2123284339904785e-01</leafValues></_>
        <_>
          <internalNodes>
            0 -1 47 2.3315740691032261e-04</internalNodes>
          <leafValues>
            -6.3360136747360229e-01 6.1515688896179199e-01</leafValues></_></weakClassifiers></_>
    <!-- stage 6 -->
    <_>
      <maxWeakCount>2</maxWeakCount>
      <stageThreshold>-5.4596841335296631e-01</stageThreshold>
      <weakClassifiers>
        <_>
          <internalNodes>
            0 -1 16 -2.3231029510498047e-02</internalNodes>
          <leafValues>
            3.1034481525421143e-01 -8.0851066112518311e-01</leafValues></_>
        <_>
          <internalNodes>
            0 -1 29 4.9251748350798152e-06</internalNodes>
          <leafValues>
            -8.5631322860717773e-01 4.1299131512641907e-01</leafValues></_></weakClassifiers></_>
    <!-- stage 7 -->
    <_>
      <maxWeakCount>4</maxWeakCount>
      <stageThreshold>-5.8177649974822998e-01</stageThreshold>
      <weakClassifiers>
        <_>
          <internalNodes>
            0 -1 23 5.2403640002012253e-03</internalNodes>
          <leafValues>
            -6.8421053886413574e-01 6.5957444906234741e-01</leafValues></_>
        <_>
          <internalNodes>
            0 -1 68 3.2788421958684921e-03</internalNodes>
          <leafValues>
            -5.2759307622909546e-01 7.2549813985824585e-01</leafValues></_>
        <_>
          <internalNodes>
            0 -1 44 3.7405645707622170e-04</internalNodes>
          <leafValues>
            -9.5862394571304321e-01 3.8661551475524902e-01</leafValues></_>
        <_>
          <internalNodes>
            0 -1 17 2.9661020380444825e-04</internalNodes>
          <leafValues>
            3.3555981516838074e-01 -9.6199011802673340e-01</leafValues></_></weakClassifiers></_>
    <!-- stage 8 -->
    <_>
      <maxWeakCount>4</maxWeakCount>
      <stageThreshold>-9.6308922767639160e-01</stageThreshold>
      <weakClassifiers>
        <_>
          <internalNodes>
            0 -1 65 4.7987531870603561e-02</internalNodes>
          <leafValues>
            -7.5634515285491943e-01 3.0769231915473938e-01</leafValues></_>
        <_>
          <internalNodes>
            0 -1 13 -2.7921637520194054e-03</internalNodes>
          <leafValues>
            -8.4973061084747314e-01 2.8124234080314636e-01</leafValues></_>
        <_>
          <internalNodes>
            0 -1 62 -6.8265069276094437e-03</internalNodes>
          <leafValues>
            3.2114738225936890e-01 -8.0852949619293213e-01</leafValues></_>
        <_>
          <internalNodes>
            0 -1 42 -4.9622816732153296e-04</internalNodes>
          <leafValues>
            -9.5508611202239990e-01 3.2183918356895447e-01</leafValues></_></weakClassifiers></_>
    <!-- stage 9 -->
    <_>
      <maxWeakCount>5</maxWeakCount>
      <stageThreshold>-1.1886874437332153e+00</stageThreshold>
      <weakClassifiers>
        <_>
          <internalNodes>
            0 -1 36 -2.4042752920649946e-04</internalNodes>
          <leafValues>
            2.6829269528388977e-01 -7.6165801286697388e-01</leafValues></_>
        <_>
          <internalNodes>
            0 -1 33 -5.3000114858150482e-03</internalNodes>
          <leafValues>
            2.5042799115180969e-01 -8.7734657526016235e-01</leafValues></_>
        <_>
          <internalNodes>
            0 -1 0 5.4679834283888340e-04</internalNodes>
          <leafValues>
            -5.1974540948867798e-01 6.2957996129989624e-01</leafValues></_>
        <_>
          <internalNodes>
            0 -1 26 1.5434098895639181e-03</internalNodes>
          <leafValues>
            4.1355413198471069e-01 -9.4960683584213257e-01</leafValues></_>
        <_>
          <internalNodes>
            0 -1 64 1.0000424226745963e-03</internalNodes>
          <leafValues>
            -5.8453637361526489e-01 5.5650836229324341e-01</leafValues></_></weakClassifiers></_>
    <!-- stage 10 -->
    <_>
      <maxWeakCount>4</maxWeakCount>
      <stageThreshold>-1.0886752605438232e+00</stageThreshold>
      <weakClassifiers>
        <_>
          <internalNodes>
            0 -1 2 1.0289477184414864e-02</internalNodes>
          <leafValues>
            -8.1286549568176270e-01 1.3461539149284363e-01</leafValues></_>
        <_>
          <internalNodes>
            0 -1 31 -1.3542498927563429e-03</internalNodes>
          <leafValues>
            3.3451944589614868e-01 -8.1202930212020874e-01</leafValues></_>
        <_>
          <internalNodes>
            0 -1 34 6.0052791377529502e-04</internalNodes>
          <leafValues>
            3.5712951421737671e-01 -7.6884013414382935e-01</leafValues></_>
        <_>
          <internalNodes>
            0 -1 57 -3.1451571267098188e-03</internalNodes>
          <leafValues>
            4.3058541417121887e-01 -7.6839089393615723e-01</leafValues></_></weakClassifiers></_>
    <!-- stage 11 -->
    <_>
      <maxWeakCount>3</maxWeakCount>
      <stageThreshold>-1.0987961292266846e+00</stageThreshold>
      <weakClassifiers>
        <_>
          <internalNodes>
            0 -1 3 -2.4873118381947279e-03</internalNodes>
          <leafValues>
            3.4177213907241821e-01 -7.7551019191741943e-01</leafValues></_>
        <_>
          <internalNodes>
            0 -1 66 -5.6047830730676651e-03</internalNodes>
          <leafValues>
            5.4722630977630615e-01 -6.3092374801635742e-01</leafValues></_>
        <_>
          <internalNodes>
            0 -1 32 5.0412435084581375e-02</internalNodes>
          <leafValues>
            3.0763784050941467e-01 -9.8104900121688843e-01</leafValues></_></weakClassifiers></_>
    <!-- stage 12 -->
    <_>
      <maxWeakCount>4</maxWeakCount>
      <stageThreshold>-5.5115216970443726e-01</stageThreshold>
      <weakClassifiers>
        <_>
          <internalNodes>
            0 -1 41 2.6102415286004543e-03</internalNodes>
          <leafValues>
            -6.2962961196899414e-01 8.7500000000000000e-01</leafValues></_>
        <_>
          <internalNodes>
            0 -1 46 6.0758804465876892e-05</internalNodes>
          <leafValues>
            3.2758972048759460e-01 -9.2902117967605591e-01</leafValues></_>
        <_>
          <internalNodes>
            0 -1 10 3.9100412279367447e-02</internalNodes>
          <leafValues>
            -5.4429340362548828e-01 6.8928009271621704e-01</leafValues></_>
        <_>
          <internalNodes>
            0 -1 54 -1.0200226097367704e-04</internalNodes>
          <leafValues>
            3.6876419186592102e-01 -9.3839234113693237e-01</leafValues></_></weakClassifiers></_>
    <!-- stage 13 -->
    <_>
      <maxWeakCount>3</maxWeakCount>
      <stageThreshold>-1.3409718275070190e+00</stageThreshold>
      <weakClassifiers>
        <_>
          <internalNodes>
            0 -1 11 2.9090946540236473e-02</internalNodes>
          <leafValues>
            -8.7179487943649292e-01 9.2436976730823517e-02</leafValues></_>
        <_>
          <internalNodes>
            0 -1 21 -2.4061542353592813e-04</internalNodes>
          <leafValues>
            3.1380435824394226e-01 -7.9485255479812622e-01</leafValues></_>
        <_>
          <internalNodes>
            0 -1 43 -7.4665551073849201e-04</internalNodes>
          <leafValues>
            -8.6159640550613403e-01 3.2567563652992249e-01</leafValues></_></weakClassifiers></_>
    <!-- stage 14 -->
    <_>
      <maxWeakCount>4</maxWeakCount>
      <stageThreshold>-7.8609544038772583e-01</stageThreshold>
      <weakClassifiers>
        <_>
          <internalNodes>
            0 -1 30 -1.1928495019674301e-02</internalNodes>
          <leafValues>
            3.3333334326744080e-01 -7.0334929227828979e-01</leafValues></_>
        <_>
          <internalNodes>
            0 -1 59 1.5820875763893127e-02</internalNodes>
          <leafValues>
            -6.7912501096725464e-01 4.6003559231758118e-01</leafValues></_>
        <_>
          <internalNodes>
            0 -1 39 -1.6667813179083169e-04</internalNodes>
          <leafValues>
            -9.6250104904174805e-01 3.0480563640594482e-01</leafValues></_>
        <_>
          <internalNodes>
            0 -1 19 -1.4756433665752411e-04</internalNodes>
          <leafValues>
            -7.4510937929153442e-01 3.9782601594924927e-01</leafValues></_></weakClassifiers></_>
    <!-- stage 15 -->
    <_>
      <maxWeakCount>4</maxWeakCount>
      <stageThreshold>-1.0950967073440552e+00</stageThreshold>
      <weakClassifiers>
        <_>
          <internalNodes>
            0 -1 58 -2.8061051853001118e-03</internalNodes>
          <leafValues>
            -1.5384615398943424e-02 -8.4827584028244019e-01</leafValues></_>
        <_>
          <internalNodes>
            0 -1 22 5.3312801755964756e-03</internalNodes>
          <leafValues>
            -8.0763083696365356e-01 2.8412151336669922e-01</leafValues></_>
        <_>
          <internalNodes>
            0 -1 56 4.8899870307650417e-05</internalNodes>
          <leafValues>
            -7.9099404811859131e-01 3.1001797318458557e-01</leafValues></_>
        <_>
          <internalNodes>
            0 -1 14 8.2440795376896858e-03</internalNodes>
          <leafValues>
            3.8871768116950989e-01 -8.4096032381057739e-01</leafValues></_></weakClassifiers></_>
    <!-- stage 16 -->
    <_>
      <maxWeakCount>3</maxWeakCount>
      <stageThreshold>-4.1465267539024353e-01</stageThreshold>
      <weakClassifiers>
        <_>
          <internalNodes>
            0 -1 40 -4.4537533540278673e-04</internalNodes>
          <leafValues>
            2.3456789553165436e-01 -7.4226802587509155e-01</leafValues></_>
        <_>
          <internalNodes>
            0 -1 60 9.5675454940646887e-04</internalNodes>
          <leafValues>
            2.5345388054847717e-01 -9.3082278966903687e-01</leafValues></_>
        <_>
          <internalNodes>
            0 -1 7 1.6827604849822819e-04</internalNodes>
          <leafValues>
            2.8160220384597778e-01 -8.9293396472930908e-01</leafValues></_></weakClassifiers></_>
    <!-- stage 17 -->
    <_>
      <maxWeakCount>4</maxWeakCount>
      <stageThreshold>-9.7117495536804199e-01</stageThreshold>
      <weakClassifiers>
        <_>
          <internalNodes>
            0 -1 50 -9.7295356681570411e-05</internalNodes>
          <leafValues>
            -7.7922075986862183e-02 -9.3388432264328003e-01</leafValues></_>
        <_>
          <internalNodes>
            0 -1 38 1.1636731214821339e-03</internalNodes>
          <leafValues>
            2.6147687435150146e-01 -7.9788941144943237e-01</leafValues></_>
        <_>
          <internalNodes>
            0 -1 8 3.2145048025995493e-03</internalNodes>
          <leafValues>
            -6.6826379299163818e-01 4.1065078973770142e-01</leafValues></_>
        <_>
          <internalNodes>
            0 -1 51 -1.9685455481521785e-04</internalNodes>
          <leafValues>
            6.4859074354171753e-01 -4.8646596074104309e-01</leafValues></_></weakClassifiers></_>
    <!-- stage 18 -->
    <_>
      <maxWeakCount>5</maxWeakCount>
      <stageThreshold>-1.2053718566894531e+00</stageThreshold>
      <weakClassifiers>
        <_>
          <internalNodes>
            0 -1 9 2.0004543662071228e-01</internalNodes>
          <leafValues>
            -5.9036141633987427e-01 8.4615385532379150e-01</leafValues></_>
        <_>
          <internalNodes>
            0 -1 35 -2.3169690393842757e-05</internalNodes>
          <leafValues>
            -8.0785095691680908e-01 4.7584280371665955e-01</leafValues></_>
        <_>
          <internalNodes>
            0 -1 12 1.4009727165102959e-03</internalNodes>
          <leafValues>
            3.7531283497810364e-01 -1.</leafValues></_>
        <_>
          <internalNodes>
            0 -1 55 7.6445043087005615e-03</internalNodes>
          <leafValues>
            -5.8924150466918945e-01 5.2211070060729980e-01</leafValues></_>
        <_>
          <internalNodes>
            0 -1 20 -2.0329745893832296e-05</internalNodes>
          <leafValues>
            -8.3609491586685181e-01 4.0676927566528320e-01</leafValues></_></weakClassifiers></_>
    <!-- stage 19 -->
    <_>
      <maxWeakCount>4</maxWeakCount>
      <stageThreshold>-8.2257997989654541e-01</stageThreshold>
      <weakClassifiers>
        <_>
          <internalNodes>
            0 -1 4 9.6735216677188873e-02</internalNodes>
          <leafValues>
            -6.3485479354858398e-01 8.2352942228317261e-01</leafValues></_>
        <_>
          <internalNodes>
            0 -1 61 1.5760629321448505e-04</internalNodes>
          <leafValues>
            3.9687612652778625e-01 -7.8709918260574341e-01</leafValues></_>
        <_>
          <internalNodes>
            0 -1 25 7.0063484599813819e-04</internalNodes>
          <leafValues>
            2.9231303930282593e-01 -9.4810342788696289e-01</leafValues></_>
        <_>
          <internalNodes>
            0 -1 18 -1.7562761902809143e-02</internalNodes>
          <leafValues>
            -8.7691438198089600e-01 3.7330982089042664e-01</leafValues></_></weakClassifiers></_></stages>
  <features>
    <_>
      <rects>
        <_>
          0 0 2 67 -1.</_>
        <_>
          1 0 1 67 2.</_></rects>
      <tilted>0</tilted></_>
    <_>
      <rects>
        <_>
          0 11 14 68 -1.</_>
        <_>
          7 11 7 68 2.</_></rects>
      <tilted>0</tilted></_>
    <_>
      <rects>
        <_>
          0 49 51 12 -1.</_>
        <_>
          17 49 17 12 3.</_></rects>
      <tilted>0</tilted></_>
    <_>
      <rects>
        <_>
          1 4 22 1 -1.</_>
        <_>
          1 4 11 1 2.</_></rects>
      <tilted>1</tilted></_>
    <_>
      <rects>
        <_>
          2 0 29 36 -1.</_>
        <_>
          2 18 29 18 2.</_></rects>
      <tilted>0</tilted></_>
    <_>
      <rects>
        <_>
          2 0 61 14 -1.</_>
        <_>
          2 7 61 7 2.</_></rects>
      <tilted>0</tilted></_>
    <_>
      <rects>
        <_>
          3 37 30 5 -1.</_>
        <_>
          13 37 10 5 3.</_></rects>
      <tilted>0</tilted></_>
    <_>
      <rects>
        <_>
          4 31 14 6 -1.</_>
        <_>
          4 33 14 2 3.</_></rects>
      <tilted>0</tilted></_>
    <_>
      <rects>
        <_>
          6 0 14 30 -1.</_>
        <_>
          13 0 7 30 2.</_></rects>
      <tilted>0</tilted></_>
    <_>
      <rects>
        <_>
          6 1 72 69 -1.</_>
        <_>
          6 24 72 23 3.</_></rects>
      <tilted>0</tilted></_>
    <_>
      <rects>
        <_>
          11 2 54 20 -1.</_>
        <_>
          11 12 54 10 2.</_></rects>
      <tilted>0</tilted></_>
    <_>
      <rects>
        <_>
          11 7 15 69 -1.</_>
        <_>
          16 30 5 23 9.</_></rects>
      <tilted>0</tilted></_>
    <_>
      <rects>
        <_>
          11 33 8 20 -1.</_>
        <_>
          11 43 8 10 2.</_></rects>
      <tilted>0</tilted></_>
    <_>
      <rects>
        <_>
          12 32 9 36 -1.</_>
        <_>
          12 44 9 12 3.</_></rects>
      <tilted>0</tilted></_>
    <_>
      <rects>
        <_>
          12 42 54 14 -1.</_>
        <_>
          39 42 27 14 2.</_></rects>
      <tilted>0</tilted></_>
    <_>
      <rects>
        <_>
          15 31 52 11 -1.</_>
        <_>
          28 31 26 11 2.</_></rects>
      <tilted>0</tilted></_>
    <_>
      <rects>
        <_>
          16 61 60 18 -1.</_>
        <_>
          16 70 60 9 2.</_></rects>
      <tilted>0</tilted></_>
    <_>
      <rects>
        <_>
          17 33 3 20 -1.</_>
        <_>
          17 43 3 10 2.</_></rects>
      <tilted>0</tilted></_>
    <_>
      <rects>
        <_>
          18 20 44 12 -1.</_>
        <_>
          40 20 22 12 2.</_></rects>
      <tilted>0</tilted></_>
    <_>
      <rects>
        <_>
          19 73 12 6 -1.</_>
        <_>
          25 73 6 6 2.</_></rects>
      <tilted>0</tilted></_>
    <_>
      <rects>
        <_>
          21 27 2 4 -1.</_>
        <_>
          21 27 2 2 2.</_></rects>
      <tilted>1</tilted></_>
    <_>
      <rects>
        <_>
          21 50 2 20 -1.</_>
        <_>
          21 60 2 10 2.</_></rects>
      <tilted>0</tilted></_>
    <_>
      <rects>
        <_>
          22 36 17 18 -1.</_>
        <_>
          22 45 17 9 2.</_></rects>
      <tilted>0</tilted></_>
    <_>
      <rects>
        <_>
          23 3 3 20 -1.</_>
        <_>
          23 13 3 10 2.</_></rects>
      <tilted>0</tilted></_>
    <_>
      <rects>
        <_>
          25 27 14 3 -1.</_>
        <_>
          32 27 7 3 2.</_></rects>
      <tilted>0</tilted></_>
    <_>
      <rects>
        <_>
          25 29 12 7 -1.</_>
        <_>
          29 29 4 7 3.</_></rects>
      <tilted>0</tilted></_>
    <_>
      <rects>
        <_>
          26 22 40 1 -1.</_>
        <_>
          26 22 20 1 2.</_></rects>
      <tilted>1</tilted></_>
    <_>
      <rects>
        <_>
          28 17 9 42 -1.</_>
        <_>
          31 31 3 14 9.</_></rects>
      <tilted>0</tilted></_>
    <_>
      <rects>
        <_>
          28 37 24 12 -1.</_>
        <_>
          28 43 24 6 2.</_></rects>
      <tilted>0</tilted></_>
    <_>
      <rects>
        <_>
          29 31 21 9 -1.</_>
        <_>
          36 34 7 3 9.</_></rects>
      <tilted>0</tilted></_>
    <_>
      <rects>
        <_>
          29 69 48 10 -1.</_>
        <_>
          29 74 48 5 2.</_></rects>
      <tilted>0</tilted></_>
    <_>
      <rects>
        <_>
          33 25 24 11 -1.</_>
        <_>
          39 25 12 11 2.</_></rects>
      <tilted>0</tilted></_>
    <_>
      <rects>
        <_>
          34 6 24 74 -1.</_>
        <_>
          34 43 24 37 2.</_></rects>
      <tilted>0</tilted></_>
    <_>
      <rects>
        <_>
          35 33 27 31 -1.</_>
        <_>
          44 33 9 31 3.</_></rects>
      <tilted>0</tilted></_>
    <_>
      <rects>
        <_>
          36 13 18 7 -1.</_>
        <_>
          42 13 6 7 3.</_></rects>
      <tilted>0</tilted></_>
    <_>
      <rects>
        <_>
          37 27 11 8 -1.</_>
        <_>
          37 31 11 4 2.</_></rects>
      <tilted>0</tilted></_>
    <_>
      <rects>
        <_>
          37 39 7 4 -1.</_>
        <_>
          37 40 7 2 2.</_></rects>
      <tilted>0</tilted></_>
    <_>
      <rects>
        <_>
          38 26 42 42 -1.</_>
        <_>
          38 26 21 21 2.</_>
        <_>
          59 47 21 21 2.</_></rects>
      <tilted>0</tilted></_>
    <_>
      <rects>
        <_>
          38 30 9 6 -1.</_>
        <_>
          41 32 3 2 9.</_></rects>
      <tilted>0</tilted></_>
    <_>
      <rects>
        <_>
          38 32 9 3 -1.</_>
        <_>
          41 33 3 1 9.</_></rects>
      <tilted>0</tilted></_>
    <_>
      <rects>
        <_>
          38 37 6 8 -1.</_>
        <_>
          40 37 2 8 3.</_></rects>
      <tilted>0</tilted></_>
    <_>
      <rects>
        <_>
          39 17 11 8 -1.</_>
        <_>
          39 19 11 4 2.</_></rects>
      <tilted>0</tilted></_>
    <_>
      <rects>
        <_>
          40 11 12 11 -1.</_>
        <_>
          43 11 6 11 2.</_></rects>
      <tilted>0</tilted></_>
    <_>
      <rects>
        <_>
          40 11 27 17 -1.</_>
        <_>
          49 11 9 17 3.</_></rects>
      <tilted>0</tilted></_>
    <_>
      <rects>
        <_>
          40 39 4 15 -1.</_>
        <_>
          40 44 4 5 3.</_></rects>
      <tilted>0</tilted></_>
    <_>
      <rects>
        <_>
          41 38 9 29 -1.</_>
        <_>
          44 41 3 29 3.</_></rects>
      <tilted>1</tilted></_>
    <_>
      <rects>
        <_>
          42 20 10 24 -1.</_>
        <_>
          42 20 5 12 2.</_>
        <_>
          47 32 5 12 2.</_></rects>
      <tilted>0</tilted></_>
    <_>
      <rects>
        <_>
          42 39 6 4 -1.</_>
        <_>
          44 39 2 4 3.</_></rects>
      <tilted>0</tilted></_>
    <_>
      <rects>
        <_>
          43 0 12 34 -1.</_>
        <_>
          46 3 6 34 2.</_></rects>
      <tilted>1</tilted></_>
    <_>
      <rects>
        <_>
          43 39 6 18 -1.</_>
        <_>
          43 39 3 9 2.</_>
        <_>
          46 48 3 9 2.</_></rects>
      <tilted>0</tilted></_>
    <_>
      <rects>
        <_>
          45 24 8 20 -1.</_>
        <_>
          47 24 4 20 2.</_></rects>
      <tilted>0</tilted></_>
    <_>
      <rects>
        <_>
          47 36 4 15 -1.</_>
        <_>
          48 36 2 15 2.</_></rects>
      <tilted>0</tilted></_>
    <_>
      <rects>
        <_>
          50 18 3 32 -1.</_>
        <_>
          42 26 3 16 2.</_></rects>
      <tilted>1</tilted></_>
    <_>
      <rects>
        <_>
          50 36 30 6 -1.</_>
        <_>
          60 46 10 6 3.</_></rects>
      <tilted>1</tilted></_>
    <_>
      <rects>
        <_>
          51 16 8 54 -1.</_>
        <_>
          51 16 4 27 2.</_>
        <_>
          55 43 4 27 2.</_></rects>
      <tilted>0</tilted></_>
    <_>
      <rects>
        <_>
          52 17 18 30 -1.</_>
        <_>
          58 17 6 30 3.</_></rects>
      <tilted>0</tilted></_>
    <_>
      <rects>
        <_>
          52 45 16 17 -1.</_>
        <_>
          56 45 8 17 2.</_></rects>
      <tilted>0</tilted></_>
    <_>
      <rects>
        <_>
          53 5 12 38 -1.</_>
        <_>
          57 9 4 38 3.</_></rects>
      <tilted>1</tilted></_>
    <_>
      <rects>
        <_>
          54 31 10 40 -1.</_>
        <_>
          54 31 5 20 2.</_>
        <_>
          59 51 5 20 2.</_></rects>
      <tilted>0</tilted></_>
    <_>
      <rects>
        <_>
          54 40 24 10 -1.</_>
        <_>
          62 48 8 10 3.</_></rects>
      <tilted>1</tilted></_>
    <_>
      <rects>
        <_>
          57 22 12 10 -1.</_>
        <_>
          60 25 6 10 2.</_></rects>
      <tilted>1</tilted></_>
    <_>
      <rects>
        <_>
          59 23 2 10 -1.</_>
        <_>
          59 23 1 10 2.</_></rects>
      <tilted>1</tilted></_>
    <_>
      <rects>
        <_>
          60 25 3 27 -1.</_>
        <_>
          51 34 3 9 3.</_></rects>
      <tilted>1</tilted></_>
    <_>
      <rects>
        <_>
          62 11 14 18 -1.</_>
        <_>
          56 17 14 6 3.</_></rects>
      <tilted>1</tilted></_>
    <_>
      <rects>
        <_>
          64 8 8 18 -1.</_>
        <_>
          64 8 4 9 2.</_>
        <_>
          68 17 4 9 2.</_></rects>
      <tilted>0</tilted></_>
    <_>
      <rects>
        <_>
          69 0 9 33 -1.</_>
        <_>
          58 11 9 11 3.</_></rects>
      <tilted>1</tilted></_>
    <_>
      <rects>
        <_>
          70 2 10 50 -1.</_>
        <_>
          75 2 5 50 2.</_></rects>
      <tilted>0</tilted></_>
    <_>
      <rects>
        <_>
          72 1 3 76 -1.</_>
        <_>
          72 20 3 38 2.</_></rects>
      <tilted>0</tilted></_>
    <_>
      <rects>
        <_>
          76 49 4 16 -1.</_>
        <_>
          76 49 2 16 2.</_></rects>
      <tilted>1</tilted></_></features></cascade>
</opencv_storage>
